0,1,2,3,4,5,6,7,8,9,10,11,12,13,14,15,16,17,18,19,20,21,22,23,24,25,26,27,28,29,30,31
-0.47008392,0.40602353,-1.2998168,0.027280351,-0.39408243,-1.3382397,0.4987568,-1.50663,0.3043305,0.577226,1.1089333,0.1358568,1.1375508,0.13029268,0.47963452,-0.47682914,-1.408467,0.73481095,0.9635132,-1.6151717,-0.9469678,0.014358753,0.45992944,1.3035532,-0.12823799,-0.96688807,1.7893738,-0.61214846,-0.7734728,1.6202233,-1.8354727,-0.30437994
-0.07352722,1.5635157,1.449494,0.12533456,-1.3909677,0.81035346,-0.50841033,0.60518914,-1.0861342,-0.72025007,0.082171015,-1.9123989,0.07831156,0.33872783,-1.0638974,-0.3357205,1.8897046,0.44320837,-0.26187232,0.85125244,-0.14825459,-0.61763114,0.16444865,-0.22389904,-0.24085273,-1.6960658,-1.3769572,0.38293737,0.55936545,0.28091064,0.69973123,-1.4764338
-1.9933338,1.6594934,2.1250658,-0.1281121,1.09148,2.385637,-0.7891075,0.08041458,-0.5783374,-1.7783009,-1.0549831,0.53431684,0.18951643,-1.1109152,0.83710283,0.104874894,0.25825384,0.6103804,0.8341733,0.3966996,-1.670877,-1.6006169,1.3389757,2.3267038,0.7519876,0.33118495,-0.8313479,0.19735521,-1.2177615,-0.031340364,-1.8291156,-0.99162424
0.97736466,0.8846002,-0.05996628,-0.77039695,-0.46444607,-0.791517,0.6284668,0.09008578,0.010482784,-0.5398705,-0.39383593,0.8297279,-1.806953,0.10131885,0.93076086,-2.3884616,0.13660358,0.20528314,0.87787753,-0.24335785,-1.8504964,0.9434057,-0.75823236,0.92868483,-0.8810694,-0.62631077,-0.16884512,-2.3007975,-0.5737379,-0.60336417,0.6630041,-0.74998593
-0.07915169,1.2698427,-0.5211983,-1.6108462,0.07432078,1.630487,-1.1844964,0.6337083,-0.09997414,-0.26023853,1.5930866,-1.612866,0.084654406,0.26541433,-0.16275617,-0.4192645,-0.54843295,-1.103369,0.4110697,-0.7225518,0.1035772,0.43111408,-1.4424002,-0.380725,-1.2876267,1.4323764,0.10494751,-0.26650557,-1.6902887,-1.7579563,0.6974955,2.0344036
-0.15528306,-0.41729513,-0.19264577,0.04184133,0.60572463,-3.7733135,-0.06662478,-1.44416,-0.56635875,1.6539391,-0.18291618,-1.9839121,0.5383539,-0.2285427,0.7235397,-1.1922444,-0.70882195,-1.3787326,0.7936899,0.3311135,-1.3473538,-0.2770505,-1.0178876,0.6470414,-1.1238301,0.23296563,1.5029227,1.0603399,-0.07766203,-1.2305602,0.81465846,-0.14410132
1.5095574,0.01969207,-1.1446091,-1.1153239,0.8719393,0.037091464,1.8663212,0.18369105,0.0011185821,0.8232768,-0.47338128,-0.9249409,-1.1189688,-0.20055331,-0.11016846,-0.9212215,0.3738876,0.0045754835,0.93527985,0.47005382,-0.38393807,-0.23092182,0.277907,-0.31722137,0.61600184,-0.034855444,1.3072803,-1.1243618,0.22855203,0.99657065,0.4557682,0.5010877
-0.5354391,1.7520068,-0.25995013,-0.06719533,0.38433844,0.80669314,0.16503857,-0.42973614,-0.25234315,0.8771771,0.34061593,-1.2041556,2.1065974,-0.31871378,-0.17758754,1.1147195,0.3626803,-1.4231695,0.08941361,0.3207258,-0.40181583,-1.8415066,-2.5443301,0.14415154,0.57941693,-1.1928031,0.034883056,0.56816703,0.83895,0.6983646,-0.9067696,-0.29540253
0.27877784,-0.8735904,-0.34422916,-0.0016461927,-2.1935494,-0.53894526,0.37088817,0.75576395,-2.6073873,1.5316721,1.1780725,0.45685259,0.6770769,0.5192417,-0.8365174,-1.4702141,-0.4591025,0.6922194,-0.21575947,1.4936074,-1.022175,-0.43785036,-0.66741633,-0.1605681,0.23276556,0.50094247,0.57728726,-0.27031037,1.227498,2.0319276,1.2731873,0.08372004
1.6467013,-0.64462537,-0.05721143,0.9867476,-0.32595235,-0.6791724,-2.1171818,0.5865177,1.2995927,-1.3272337,0.8269008,-0.5055288,-1.0213791,1.2269888,-0.91197854,-0.42833072,1.2758931,-0.96380043,0.3959586,0.5123343,0.87725544,0.9151226,-0.100399986,1.3232664,-3.253531,0.6071437,1.1785244,-0.53718597,1.0223944,0.17434478,0.7426434,-1.9611174
-0.051261954,-1.1969724,0.6093292,-0.7787621,-0.59188145,0.1252493,-0.22798726,-1.2207831,0.33388165,0.0441906,-0.78977156,1.676244,1.6113575,-1.0677836,-1.1540164,-0.7633983,0.8474066,0.9202854,0.8976938,1.0119503,-0.9219789,2.9442413,-0.32928962,0.3491342,-0.740184,-0.91901577,0.044831816,-0.57343656,0.08749841,-0.5968791,-0.022055581,1.2282196
-1.4446652,0.7642937,0.42962646,0.46775448,-0.85860175,-0.3260179,-0.82974327,1.0099268,0.16031894,-0.3760849,0.05931245,-1.2831706,0.61855376,1.4081956,-0.56973153,-0.23523918,0.039207544,0.6240127,0.2409402,-0.86946887,0.8072778,-1.3188266,-1.1423132,-1.7806239,0.3269632,-0.29941338,0.77834415,-1.9462135,-1.1279702,-0.18765327,-0.8938147,-1.1787672
-0.29854527,1.07507,1.9364933,-1.4149547,1.2494856,0.0406008,0.4879344,1.5225966,0.28342608,0.6965123,-1.0116937,-0.005660761,0.16852447,0.04520389,-0.781761,-1.6501788,2.6108427,-0.45442685,-2.2806242,-0.49086398,-1.7745273,-0.8275357,-0.95219207,0.50884527,0.79225653,1.8694437,0.90303844,0.2675799,0.7911627,0.6549948,-2.0325637,0.16424915
-0.1918557,-1.4604483,0.5817103,0.8173504,0.8916683,-0.6775727,-0.9049529,-0.04822541,-0.3768853,0.57577246,0.11892448,0.15259427,0.0032889657,0.9947142,-0.8259653,-1.7443058,-1.8890048,0.21107425,-0.9168676,-0.6622219,0.21395293,0.48219198,-0.2038377,1.9209079,1.1398259,-0.094447866,-1.2452862,0.7407164,-1.3630315,1.2577877,-2.2011423,0.65482205
-1.4195178,-0.31821498,0.4005491,-1.5317369,0.65578645,-0.41219527,-0.02382198,-1.9578835,1.2190439,-1.4339943,0.30252874,-1.3339789,-0.7233524,-0.13049991,-0.41947845,0.38510293,0.4258949,-0.63915807,1.5102291,2.0193577,0.33325082,-1.2297539,0.0484843,-0.54252195,0.9420197,0.95928377,-0.5998181,0.8033842,-1.418531,-0.5876915,-0.22446945,-2.0534234
2.3808854,-1.0824922,1.767628,-0.45752952,0.045086868,0.8775798,0.83022606,0.9955152,-0.5989088,0.74245596,1.0449016,0.6715657,-0.4207139,0.70278066,-0.8975958,0.692955,-0.64411235,1.6754584,-0.3843536,1.340613,2.295512,-0.21107449,0.7833657,-1.1719415,-0.17108676,1.4568784,1.0830115,-0.54799575,-1.4613008,1.2709857,0.5169873,-0.3462309
-0.20448479,1.6032388,0.9405302,-0.13096434,-2.2935205,1.0488347,-0.5623093,-0.16218768,0.7472418,1.7649789,-1.182444,0.6126264,-1.2944531,0.35609972,-0.10715205,0.88791275,0.3817077,0.6921228,-1.2110597,0.2948506,-1.312881,0.57944894,-1.2025317,1.1162808,-0.089863166,-0.48803088,-1.1223427,1.779256,0.13741584,0.31455642,0.8749257,-0.51808906
-1.5395782,0.36191466,0.08093038,-1.0247073,-1.3881751,0.43601745,-0.30133975,0.2516752,0.21162596,1.0083809,0.5205099,-0.11754012,-0.57305306,-0.30630875,-0.115775995,-0.11407994,0.011028387,-0.59088767,0.3502174,0.6925074,1.386968,0.0968681,-1.2910006,-1.1227835,-0.50666606,0.24794136,-0.07539804,-3.1264412,0.07126418,1.1720878,0.60931534,-0.5692422
2.4186127,0.536716,0.3925048,-1.0868059,0.53340226,-0.6361856,-1.0661968,-1.0331933,0.97718805,1.5564525,-0.20009986,0.6846917,0.9209336,0.03491537,0.3811379,3.3234985,-0.5724318,-0.4789787,0.8418074,0.25041437,-0.21202038,-1.2643393,0.38185495,-1.457993,-0.061547622,2.2247171,-0.521679,0.5553464,0.86214954,-1.964761,0.22477949,0.1547559
-0.7090391,1.8232259,1.8525593,0.50632596,-0.5703972,-0.40179777,-1.0484877,-0.4360154,0.28138378,-0.5882882,1.688532,-0.7711918,-0.23861971,0.20303956,0.64547753,-2.9639766,0.52357185,0.43462947,-0.5880004,1.7063005,1.2274982,0.9937001,-0.4999267,1.0711473,-1.4793512,-0.38649884,-0.13139722,0.6382863,1.7369746,-0.53646886,-0.7138993,-0.7562705
-0.26457012,0.66613436,0.17803201,-0.0846553,-0.6577182,-0.2658366,1.0131648,-1.268756,-1.0201827,1.174483,-0.83341634,-0.16928713,-0.41883877,-1.7989862,-1.9314171,0.8092934,0.16119617,-0.98763317,1.9638534,-0.40512633,-0.16237539,0.12163206,-0.8263748,-1.3381517,-0.5994997,0.17714557,1.5251933,1.4766179,1.6336976,0.52255857,0.80234516,0.24215314
-0.5397804,-1.0327215,1.1516354,-1.1969587,-0.3104827,0.18275367,0.21674223,-0.015436869,0.4294977,0.60106397,0.09000836,-2.272031,-0.08277359,-1.0688298,-2.2409916,1.0688697,0.2182568,-0.37892348,2.3438478,0.7517626,0.8693098,0.24679908,0.56705964,0.15681325,1.669292,-0.8202933,0.54144377,-1.2738165,0.50681907,-1.6767164,0.40189654,0.5573172
1.4367794,-0.970441,-1.7383868,-0.9030275,-1.9962195,0.6061927,-0.026622089,0.86140794,0.1935584,-0.7830879,-1.5569067,1.5230767,-0.97384363,-2.4624197,1.015566,-0.37398526,-0.9747886,-0.32687542,0.080206886,-1.9706571,0.9261906,0.08772263,0.632617,0.4682115,1.3566011,0.62783325,0.13601685,0.36166808,0.6723955,-0.7977583,0.6086969,0.24838841
-0.6318319,0.65255797,0.1613669,-0.6212749,-0.27092347,-0.24344972,0.30368778,0.5671872,-0.3540948,0.9063385,-1.1385202,0.29515627,-0.31936252,-0.20301527,1.1197009,2.1312253,-1.4292073,-0.16608007,0.50862783,0.5736016,1.3119327,-0.61890167,0.99372053,1.3029337,-0.58513725,-1.1265848,0.247177,0.6697096,-0.91822475,-0.074538946,-1.3373463,1.7879543
0.10379163,1.2577758,-0.24180904,-2.6788628,-1.0940021,-1.2909238,0.97366196,-0.35813406,0.7219952,0.7167077,-0.14473198,1.0385368,-1.2713085,-0.96116674,0.050769188,-1.9968107,0.39002335,1.1958488,0.1887246,0.06692866,-0.7024021,-0.649969,1.1619569,0.32260993,0.50506324,-0.3102175,-0.3158851,0.40156162,0.24657291,-0.5848754,-0.504674,0.52296025
-1.2429339,-0.6083916,-0.018643964,0.8773366,-0.39110258,-1.5523102,0.3515323,-1.0944098,0.25735357,1.3930687,-0.27274382,-0.08010106,1.5566779,0.1726411,-0.9380938,-0.14940956,1.0040673,2.2163498,-0.9880808,-1.0736525,-1.4433221,-0.5750559,-1.181314,-0.0002735727,1.7837015,1.3186729,-1.0741421,0.64196485,1.2819611,0.18978089,0.39081675,-0.19152002
1.1397413,0.21709341,-0.026845574,1.5926111,0.3252993,0.8557462,0.071565375,-2.3367958,-1.2106127,-2.09788,-1.2645284,0.73332375,-0.12963769,-0.059789553,0.32131597,1.0314771,2.486491,-0.46484098,1.4160193,1.0066277,0.0520529,1.1546552,-2.2615056,1.8608036,-0.48908496,-0.6889377,0.06859795,-0.73173785,0.5920488,-2.004998,0.72999895,1.9916734
-0.3873708,0.40290293,1.0678209,0.6945225,0.59999275,-0.13806447,0.6470068,-0.38548356,0.7039887,-1.864524,-0.40211463,0.104682006,-0.08801856,1.0137446,-0.67673653,0.8038986,2.6488438,0.6498776,-2.3016527,-0.45369086,0.023941662,1.7733238,-0.05748207,-0.8332768,-0.39034986,0.22780144,-1.3986086,0.15326677,0.49435508,1.5639677,-1.0793904,-1.0248034
0.8086461,1.2542225,0.29443452,-0.1173352,-0.71873313,-0.80817807,0.1141761,0.8242541,-0.31475478,0.25437704,0.24178298,-1.5398127,-0.7393299,0.8003286,0.5845535,0.70346296,-0.28937232,0.5514688,-0.44091615,1.6479722,0.8686105,1.3514403,1.7644322,-0.10605696,1.7266319,-0.248716,0.46185082,1.4984126,0.41047361,0.14253196,-0.0003011208,0.6343186
0.4368981,1.5161469,-1.1285733,0.19303246,-0.39125454,-1.3810899,0.6727047,0.9027004,-0.30399877,0.20793907,1.0053791,-0.3904789,-0.1425068,0.04332483,0.1423842,-0.18904066,-0.9912461,-0.72283196,2.8175192,0.46433002,0.6926656,-0.59865475,-1.8318982,-1.45638,-0.23041065,1.2978507,-1.2277853,-0.19739935,-1.2399223,1.7511051,0.036175117,0.7833078
-0.17081875,0.45870093,1.7007575,-1.2137038,-1.2328963,0.34338087,0.763645,-0.7240531,-0.47538894,-0.3035767,-0.080998294,-0.30466077,-1.1853384,0.34099343,-0.082899675,-1.384441,-0.07811059,0.58250964,-0.84384257,0.31404153,-0.5135171,-1.5687858,1.942755,0.36486512,1.0461589,-1.0733013,-1.0465286,-0.602738,-0.43881673,-0.42444164,-0.12684298,-1.0902549
0.122124106,-1.2925615,1.9559717,0.3195388,1.0679994,0.0412324,0.08711579,-0.73587334,1.477264,-0.22143354,-0.21347046,1.0180248,-2.0354853,0.13235468,0.3429839,1.3263799,-0.8239351,-2.7381775,-0.95233077,-0.22199593,-0.017707318,1.0092285,0.537436,0.047234394,0.4123366,0.47299546,-0.7157913,-0.20224978,-0.3434055,-0.23238824,-1.3694093,-1.2174107
