0,1,2,3,4,5,6,7,8,9,10,11,12,13,14,15,16,17,18,19,20,21,22,23,24,25,26,27,28,29,30,31
-0.47008392,0.40602353,-1.2998168,0.027280351,-0.39408243,-1.3382397,0.4987568,-1.4620675,0.3043305,0.5702616,1.1089333,0.21698202,1.1785117,0.13029268,0.47963452,-0.47682914,-1.408467,0.73481095,0.9635132,-1.6151717,-0.9469678,0.014358753,0.36862993,1.3035532,-0.12823799,-0.9952813,1.7893738,-0.61214846,-0.7734728,1.586748,-1.8354727,-0.35243708
-0.16398776,1.5635157,1.449494,0.21154636,-1.3909677,0.81035346,-0.50841033,0.6010333,-1.0861342,-0.72025007,0.082171015,-1.9123989,0.07831156,0.33872783,-1.0638974,-0.3357205,1.8687782,0.44320837,-0.26187232,0.85125244,-0.14825459,-0.61763114,0.06922954,-0.19445671,-0.24085273,-1.6039151,-1.3769572,0.38293737,0.55936545,0.28091064,0.666718,-1.4764338
-1.9933338,1.6594934,2.1806452,-0.1281121,0.8869443,2.385637,-0.7891075,0.08041458,-0.61516976,-1.7783009,-1.0549831,0.53431684,0.18951643,-1.1441741,0.8412031,0.104874894,0.25825384,0.6103804,0.8341733,0.3966996,-1.670877,-1.6006169,1.3389757,2.2971668,0.7358549,0.3554175,-0.8258189,0.23457368,-1.2177615,-0.031340364,-1.8410853,-0.9508915
0.97736466,0.8846002,-0.05996628,-0.77039695,-0.40446275,-0.791517,0.6284668,0.09008578,-0.04720991,-0.5398705,-0.39383593,0.8297279,-1.806953,0.10131885,0.93076086,-2.3884616,0.13660358,0.20528314,0.87787753,-0.26627398,-1.8504964,0.8944563,-0.8251381,0.92868483,-0.8810694,-0.5602462,-0.16884512,-2.2969735,-0.6183074,-0.6150191,0.74343264,-0.74998593
-0.07915169,1.3009251,-0.5211983,-1.6108462,0.07432078,1.6849941,-1.1844964,0.6337083,-0.09997414,-0.23867567,1.6820419,-1.612866,0.084654406,0.26541433,-0.16275617,-0.4192645,-0.629005,-1.103369,0.3431314,-0.7225518,0.1035772,0.43111408,-1.4690918,-0.380725,-1.310642,1.4323764,0.10494751,-0.26650557,-1.6902887,-1.748799,0.6974955,2.0344036
-0.13181666,-0.41729513,-0.19636078,0.04184133,0.60572463,-3.785259,-0.06662478,-1.4719146,-0.56635875,1.6539391,-0.18291618,-1.9839121,0.5353362,-0.2285427,0.7235397,-1.1922444,-0.70882195,-1.3787326,0.7936899,0.3311135,-1.3473538,-0.2770505,-1.0178876,0.6470414,-1.1238301,0.23296563,1.5029227,1.0603399,-0.08055337,-1.2305602,0.81465846,-0.14410132
1.5095574,0.09209737,-1.0910499,-1.1153239,0.8719393,0.037091464,1.8663212,0.18369105,0.0011185821,0.8232768,-0.47338128,-0.9249409,-1.1364235,-0.20055331,-0.07803294,-0.9212215,0.3738876,-0.027460892,0.93527985,0.47005382,-0.37424353,-0.23092182,0.4491537,-0.34264585,0.59775513,0.0652653,1.3072803,-1.1243618,0.2379196,0.98704153,0.46483427,0.5010877
-0.5354391,1.7520068,-0.25995013,-0.029145045,0.34651065,0.80669314,0.22064568,-0.42973614,-0.25234315,0.8771771,0.34061593,-1.2041556,2.1065974,-0.31871378,-0.17758754,1.1147195,0.3626803,-1.4231695,0.08941361,0.3207258,-0.3529164,-1.8415066,-2.5443301,0.14415154,0.57941693,-1.1928031,0.034883056,0.56816703,0.83895,0.7921946,-0.9292641,-0.30396542
0.27877784,-0.8735904,-0.34422916,-0.0016461927,-2.1935494,-0.53894526,0.37088817,0.75576395,-2.6073873,1.5316721,1.210201,0.39341444,0.6770769,0.5192417,-0.85059124,-1.4702141,-0.4591025,0.6922194,-0.21575947,1.4936074,-1.022175,-0.43785036,-0.66741633,-0.1605681,0.23276556,0.50094247,0.57728726,-0.3299334,1.227498,2.0319276,1.2731873,0.08372004
1.6467013,-0.64462537,-0.021377774,0.9867476,-0.32595235,-0.59097165,-2.1171818,0.5865177,1.2995927,-1.3272337,0.8359305,-0.56589645,-1.0213791,1.1612726,-0.91197854,-0.39010397,1.2758931,-0.994998,0.3959586,0.4173763,0.87725544,0.84175456,-0.100399986,1.3232664,-3.253531,0.6071437,1.1785244,-0.53718597,1.0223944,0.17434478,0.7426434,-1.9611174
-0.051261954,-1.2205919,0.6093292,-0.8023149,-0.59188145,0.1252493,-0.26983044,-1.2207831,0.33498612,0.11504865,-0.78977156,1.676244,1.6267755,-1.0677836,-1.1540164,-0.755116,0.8474066,0.9202854,0.8976938,1.0119503,-0.9219789,2.9673746,-0.32928962,0.3491342,-0.740184,-0.91901577,0.044831816,-0.5880712,0.08749841,-0.60068727,-0.022055581,1.2282196
-1.4446652,0.74677724,0.42962646,0.46775448,-0.85860175,-0.3260179,-0.82974327,1.0099268,0.16031894,-0.3760849,0.05931245,-1.2388766,0.61611515,1.4081956,-0.56973153,-0.15971342,0.039207544,0.6240127,0.2409402,-0.8360575,0.8072778,-1.3188266,-1.1594403,-1.7806239,0.3269632,-0.36404887,0.77834415,-1.9779462,-1.1107064,-0.29906464,-0.90130985,-1.1787672
-0.29854527,0.9982874,1.8777624,-1.3674479,1.2494856,0.0406008,0.4879344,1.5225966,0.20977949,0.6965123,-1.0116937,-0.005660761,0.16852447,0.04520389,-0.781761,-1.6501788,2.6168382,-0.45442685,-2.2806242,-0.49086398,-1.7745273,-0.8275357,-0.95219207,0.4735387,0.8108556,1.9255263,0.86998147,0.2675799,0.7911627,0.7941499,-2.0325637,0.16424915
-0.1918557,-1.4604483,0.63508165,0.8173504,0.8916683,-0.6775727,-0.9049529,-0.04822541,-0.40437287,0.57577246,0.1818273,0.15259427,0.0032889657,0.9702854,-0.8259653,-1.7847693,-1.8890048,0.21107425,-0.9168676,-0.6622219,0.1378513,0.48219198,-0.2038377,1.9209079,1.1398259,-0.10696057,-1.2452862,0.7407164,-1.3630315,1.5475297,-2.2011423,0.65482205
-1.4195178,-0.31821498,0.3936228,-1.5317369,0.65578645,-0.41219527,-0.02382198,-1.9578835,1.2190439,-1.4339943,0.30252874,-1.3339789,-0.7233524,-0.13972527,-0.41947845,0.39739418,0.37297627,-0.63915807,1.5133111,2.0581586,0.33325082,-1.3577089,0.0484843,-0.54252195,0.9420197,0.92320544,-0.5998181,0.80534714,-1.4056145,-0.5876915,-0.22446945,-2.0534234
2.3808854,-1.1058757,1.767628,-0.45752952,-0.07299454,0.8775798,0.821353,1.0351282,-0.5989088,0.6612131,1.0449016,0.6715657,-0.4207139,0.70278066,-0.8975958,0.692955,-0.64411235,1.791174,-0.4085746,1.340613,2.295512,-0.21641119,0.7833657,-1.1719415,-0.17108676,1.4568784,1.0830115,-0.54799575,-1.4613008,1.2709857,0.5169873,-0.2852973
-0.20448479,1.4234307,0.9405302,-0.13096434,-2.2935205,1.0898091,-0.5623093,-0.16218768,0.85936296,1.7649789,-1.182444,0.6126264,-1.2944531,0.35609972,-0.10715205,0.88791275,0.36236724,0.6921228,-1.2110597,0.2948506,-1.312881,0.57944894,-1.2025317,1.1162808,-0.089863166,-0.48803088,-1.1045719,1.7382001,0.13741584,0.31455642,0.8749257,-0.51808906
-1.5238825,0.36191466,0.08093038,-1.0247073,-1.3881751,0.43601745,-0.30133975,0.21836135,0.14674313,1.104172,0.5205099,-0.13322088,-0.57305306,-0.30630875,-0.13838765,-0.07639177,0.013560293,-0.59088767,0.32257754,0.6925074,1.3391654,0.0968681,-1.3068817,-1.1227835,-0.50666606,0.24794136,-0.07539804,-3.1264412,0.015653048,1.1720878,0.5926237,-0.5692422
2.4186127,0.61139494,0.41629004,-1.0449082,0.53340226,-0.6236011,-1.0661968,-1.0264188,0.97718805,1.5564525,-0.21474282,0.6981839,0.85798776,0.03491537,0.3811379,3.3234985,-0.5771027,-0.4789787,0.8418074,0.3263759,-0.21202038,-1.2643393,0.38185495,-1.457993,0.045523576,2.2630622,-0.521679,0.5553464,0.86214954,-1.9731426,0.22477949,0.1547559
-0.72097176,1.8116441,1.8242402,0.50632596,-0.5703972,-0.40179777,-1.0122141,-0.4360154,0.28138378,-0.5882882,1.753143,-0.7711918,-0.23861971,0.20303956,0.67643183,-2.9620202,0.5261444,0.43462947,-0.5860352,1.7063005,1.2274982,0.9937001,-0.4999267,1.0711473,-1.4793512,-0.38649884,-0.13139722,0.6382863,1.7369746,-0.53646886,-0.6206222,-0.7562705
-0.26457012,0.66613436,0.20817737,-0.12959392,-0.7179576,-0.30619153,1.0131648,-1.4959438,-0.9600609,1.174483,-0.83341634,-0.16928713,-0.41883877,-1.7989862,-1.9314171,0.8092934,0.23896392,-0.9583711,1.9638534,-0.29964876,-0.18822896,0.12163206,-0.8263748,-1.294499,-0.5994997,0.17714557,1.5251933,1.4766179,1.6336976,0.52255857,0.80234516,0.24215314
-0.5277954,-0.90846056,1.1516354,-1.1969587,-0.3110379,0.18275367,0.26802447,-0.015436869,0.41731155,0.66613925,0.008161873,-2.272031,-0.08277359,-1.0688298,-2.2409916,1.0688697,0.2182568,-0.39518166,2.3438478,0.7517626,0.8693098,0.24679908,0.48863024,0.15681325,1.669292,-0.82654536,0.54144377,-1.2738165,0.53905547,-1.6489599,0.4265533,0.54761136
1.4227606,-0.9521018,-1.7383868,-0.9030275,-1.9962195,0.63268733,-0.026622089,0.8118187,0.17464136,-0.81403,-1.5569067,1.5230767,-0.97384363,-2.4624197,1.015566,-0.31494263,-0.9747886,-0.35143477,0.080206886,-1.9706571,0.9261906,0.08772263,0.632617,0.4682115,1.3566011,0.62783325,0.13601685,0.36166808,0.57879955,-0.7977583,0.6086969,0.24838841
-0.6318319,0.65255797,0.1613669,-0.6212749,-0.27092347,-0.24344972,0.30368778,0.5671872,-0.47167638,0.9063385,-1.1385202,0.20432052,-0.3900071,-0.20301527,1.1197009,2.1312253,-1.4292073,-0.16608007,0.48969007,0.5736016,1.3520577,-0.61890167,0.8367837,1.3029337,-0.58513725,-1.2239943,0.32514486,0.6697096,-0.91822475,-0.074538946,-1.3474164,1.7559569
0.10379163,1.2577758,-0.24180904,-2.6788628,-1.0940021,-1.2909238,0.97366196,-0.43776885,0.7219952,0.7167077,-0.14473198,1.0385368,-1.2713085,-0.96116674,0.050769188,-1.9968107,0.39002335,1.1800022,0.1887246,0.06692866,-0.7024021,-0.67353266,1.1619569,0.32260993,0.6036439,-0.3102175,-0.3158851,0.3607452,0.24657291,-0.6619203,-0.504674,0.52296025
-1.1632943,-0.6083916,-0.018643964,0.8773366,-0.39110258,-1.5006812,0.3515323,-1.0944098,0.27261338,1.4378726,-0.27274382,-0.1460896,1.5566779,0.1726411,-0.9380938,-0.14940956,1.0040673,2.2163498,-0.9880808,-1.0736525,-1.4433221,-0.54472053,-1.181314,-0.0002735727,1.8131111,1.3186729,-1.0924082,0.64196485,1.2819611,0.18978089,0.39081675,-0.19152002
1.2082994,0.23441032,-0.026845574,1.5062144,0.3252993,0.8557462,0.071565375,-2.3367958,-1.2106127,-2.09788,-1.1950874,0.73332375,-0.067755446,-0.059789553,0.32131597,1.0314771,2.4160717,-0.46484098,1.3283595,0.9437282,0.117223114,1.1546552,-2.2615056,1.8608036,-0.48908496,-0.65981466,0.06859795,-0.79631674,0.6844009,-2.004998,0.72999895,1.9916734
-0.3873708,0.40290293,1.0678209,0.6945225,0.64374614,-0.13806447,0.6755548,-0.38548356,0.7039887,-1.864524,-0.441828,0.104682006,-0.07180564,1.0137446,-0.67673653,0.8038986,2.6488438,0.68946564,-2.3016527,-0.45369086,0.023941662,1.815182,-0.05748207,-0.8332768,-0.50595343,0.22780144,-1.3986086,0.15326677,0.49435508,1.5281907,-1.0793904,-1.1318046
0.8604027,1.2542225,0.29443452,-0.1173352,-0.6509245,-0.80817807,0.09843463,0.8242541,-0.31475478,0.17103516,0.24798243,-1.5398127,-0.7393299,0.8003286,0.5845535,0.70346296,-0.28937232,0.49717292,-0.44091615,1.6479722,0.8336995,1.2910707,1.7644322,-0.10605696,1.7266319,-0.248716,0.46185082,1.6070265,0.42102572,0.14253196,0.061809868,0.6343186
0.4368981,1.5161469,-1.1285733,0.1387612,-0.3821665,-1.3214347,0.64680684,0.9027004,-0.26275855,0.2157273,1.0053791,-0.3904789,-0.1425068,0.04332483,0.1423842,-0.18904066,-0.9912461,-0.72283196,2.710972,0.47028565,0.6926656,-0.59865475,-1.8318982,-1.45638,-0.23041065,1.2978507,-1.2277853,-0.20887503,-1.2553036,1.7511051,0.036175117,0.9136463
-0.17081875,0.45870093,1.7007575,-1.2137038,-1.2346821,0.34338087,0.763645,-0.7630424,-0.47538894,-0.30178583,-0.080998294,-0.30466077,-1.2474232,0.34099343,-0.082899675,-1.4315884,-0.07811059,0.50863326,-0.84384257,0.3861083,-0.5135171,-1.5687858,1.942755,0.35999745,1.0399176,-1.0733013,-1.0465286,-0.602738,-0.18933536,-0.42444164,-0.12684298,-1.1073269
0.122124106,-1.2925615,1.9559717,0.2751757,1.0679994,0.0412324,0.08711579,-0.73587334,1.477264,-0.22143354,-0.21347046,1.0180248,-2.0296543,0.13235468,0.3429839,1.3263799,-0.8239351,-2.7381775,-0.95233077,-0.22373736,-0.017707318,1.0092285,0.537436,0.047234394,0.4123366,0.47299546,-0.7157913,-0.20224978,-0.3434055,-0.23238824,-1.3694093,-1.2174107
