0,1,2,3,4,5,6,7,8,9,10,11,12,13,14,15,16,17,18,19,20,21,22,23,24,25,26,27,28,29,30,31
-0.84167314,0.43961358,-0.47859478,0.34218505,-0.3351172,1.2599885,0.52355516,0.21717949,0.27422234,-0.6269606,-1.0400114,-0.102364175,0.32538515,0.9439915,-0.46750072,-0.4903267,-0.27047315,-0.25954664,-0.6732321,-2.4369113,-0.34132048,-1.1393116,0.4481759,-1.654933,-0.34560654,-0.5721959,-0.1725923,1.3383342,0.88815016,0.78133804,1.0700598,2.182573
1.0371436,-1.3673028,0.9725474,-0.22626477,0.039648045,-1.0754191,0.6417214,1.0511909,-0.13679725,0.17303406,-0.4488526,-0.5786264,-0.19359124,-0.6751342,0.5048204,-0.5956973,-1.3434597,0.8790728,-0.37193832,0.0011573359,-0.08441622,-0.73625475,-1.5864031,0.020156328,-0.12669879,1.6337545,0.8699514,-1.1146102,-1.8039961,1.9751515,-1.44032,-0.85350144
0.12260878,-1.2794639,0.55960816,0.27334234,-1.3431588,0.22815228,-0.20207427,-1.708493,-0.17466395,0.18579412,-1.6910971,0.99734634,-0.08285518,0.18940522,-0.33793366,-0.8922224,1.0542202,-0.6824265,2.7936227,-0.5522733,2.1680436,0.32735434,-1.7209204,0.6029537,1.5181856,-0.02662752,-0.23059434,0.65671694,1.0607102,0.22690327,0.26569995,0.23730461
0.30328667,-1.7276124,-1.5951145,-0.38385373,-0.35393488,-1.1710093,-0.9662492,-0.07434461,-0.0356969,0.6251218,-1.4907532,-1.0268582,0.41899735,-1.4618633,-0.5322702,0.01703059,0.40746295,0.54827714,1.1506414,1.4595168,0.24491085,-0.8493307,1.6518484,2.263906,0.1456546,1.1748927,0.16988783,1.5525829,-0.65923613,-1.635788,0.87668693,-0.53652513
1.3314033,-0.27075467,-0.17105508,-1.1017107,0.8051533,1.8207712,0.56201017,0.08207053,1.3187118,1.4969466,-0.90396655,1.4800435,-1.7195792,-0.51770276,-0.88547534,-0.24859892,-0.55783516,2.3054538,-0.11246699,-0.85837954,-0.52954036,-0.9849757,-0.86977696,0.37425143,-0.20599689,-1.3432682,1.6013145,1.6537217,0.053608485,-0.53560805,0.20197421,-0.30993485
0.032777667,0.8283904,0.6042515,-0.27388602,1.7288325,1.2341722,1.3328466,-0.10146632,0.05720427,-0.18876208,0.68272805,-1.4871886,0.8548209,0.16010582,-0.31530026,-2.2339835,1.7737439,0.85867655,0.73233247,-0.7893479,-1.2683725,-1.6784351,2.3772988,0.73883325,-0.17115618,0.51938033,-0.039349955,0.3229003,0.36505795,0.34362963,0.18585305,-0.95351493
0.69748867,0.38473812,0.7739901,1.0792229,0.6546412,0.74620473,0.13449134,1.665707,2.2348905,0.40765935,-1.3096926,-0.61285317,0.13355294,0.39512378,2.481223,-0.27546948,0.35684383,-1.6592698,-0.51111996,-1.0380262,0.02687022,-0.11891814,0.65469503,0.69320744,1.6414852,0.08475672,1.6998842,2.2320838,-1.3677945,-1.4384794,-2.2109084,-1.0318213
-2.3158221,0.37843665,-0.39175576,-0.53951836,0.5966392,0.21450505,1.2586207,0.5191267,-0.39282906,1.3977839,-0.076686874,-0.26026672,-0.025134206,-0.6174796,0.8967012,1.042276,-0.12347234,-0.8429595,-0.19171837,-1.4801481,-0.049494587,0.12551032,-1.0822866,-0.8213721,-1.4001693,0.0469358,-0.5027574,-0.8532073,1.3823626,-0.9364409,-1.922048,-0.034319498
0.406687,-0.16694106,0.74401426,2.728508,-0.038718414,0.6058408,0.62748003,-1.0750811,0.008224551,0.34872314,1.2896988,-0.22638279,0.4556541,-0.031962387,-1.405984,-1.0796831,0.69483733,0.6079104,-0.3726157,1.669769,-0.6366204,-2.0426314,0.9802071,-0.59961635,1.3329543,0.8962209,-0.11135656,0.7511375,0.40655982,0.8763687,1.4333897,-0.5544421
1.1298236,0.08860174,-1.1566751,-0.25421813,0.09137039,-0.41950536,0.88917124,1.0090499,1.4722252,-0.8106419,0.29512754,0.21890602,0.10443865,-1.3620465,-0.014092633,-0.78745806,0.34160233,-0.5863943,-0.91382015,-0.1226468,-0.5105259,1.3438457,-0.15924887,-0.9451038,1.2391534,0.2877799,0.9210145,0.46366167,-1.6828809,-0.61574125,-1.4338539,0.32975313
-0.20150128,-0.2235752,-0.06469214,1.520767,-0.4829823,1.0945835,1.2000153,-1.7029798,-1.7125343,2.0320117,-0.6325076,-0.6665126,-1.3335087,-0.8078039,0.4599144,-0.9772966,0.55460006,-1.7213335,-0.060704827,-1.0367433,-0.3610957,-0.6175028,1.2124127,-1.0328709,0.37925708,-0.6050254,-0.31941062,0.17690665,-0.93693495,1.1540328,0.45899937,0.037830845
-1.7669364,-1.3228621,0.30191773,-0.4908445,0.92235667,0.3565536,1.0436827,0.61403155,1.3691658,0.6894348,-1.6146746,-0.3039765,-0.3307469,0.9318782,-2.2173865,0.7339466,0.35192448,-0.14932597,0.6675878,0.999977,1.3303019,0.14199843,0.85519123,0.48483676,1.3038452,-1.9838084,-2.6829882,-0.85243213,0.5296107,-1.8210671,-1.2894629,-0.26579678
-0.17597674,-1.1068368,1.3899552,0.8558376,0.62244177,-1.1642839,-1.6065947,1.2368171,0.8000963,-0.6012687,2.2875173,-0.5678023,-0.2558262,0.050490152,0.82517153,-0.17705697,0.56732213,-0.8193561,0.8067972,0.7355229,0.35434788,0.9260615,0.29460967,-0.25344196,-1.3895385,-2.5417335,-0.2911329,-1.332361,0.56626797,0.06635257,-0.48072928,-0.40013728
0.25765753,-0.29518384,-2.429382,-0.34594393,-0.47246805,0.28659156,0.72723746,-1.1520551,-0.13388878,-1.2731586,0.8046329,0.08181126,-0.2873836,-0.42725486,-0.89113635,1.2367415,-0.1607271,0.28801018,-1.7698843,-0.8345101,1.2603813,-1.1933722,0.95316017,1.0122226,0.04552009,0.1075838,0.5009597,-0.075700894,-0.8301597,1.046901,-0.10649611,1.7676314
0.5718663,-0.33366072,0.25576568,1.1827898,1.5820642,-0.16491538,1.0334561,-0.39339027,-1.9289594,-1.9235051,0.40300947,-0.22352259,0.52141315,0.15668689,0.7018732,0.60440373,-0.7023625,0.7633667,-2.6024778,1.6645414,0.8322324,0.25891143,0.17131051,0.8960744,0.7755798,2.514987,0.6271324,0.21746103,-1.0525395,-0.6471206,-0.6553421,-0.23673506
-0.27100015,-0.81487674,0.114362426,-0.3487108,1.4925907,-1.2782497,-0.5345869,-0.6418596,0.77992314,-1.164823,-0.5920574,0.7740564,0.46301973,0.7489804,-0.46776512,-1.7378311,0.8642472,-0.3284354,-0.37676594,-0.4948657,-1.037826,-1.2349976,-0.09071235,0.548832,0.94446754,-1.2729037,0.34669957,0.102114625,-0.98734283,-0.75484353,-0.32686248,-0.026858266
1.3230147,0.2626389,-0.63961893,-0.81102276,-2.0796106,1.6379049,2.8060222,-0.93470293,2.714719,-1.0501165,0.5437355,0.22791281,-0.57750744,1.6822221,1.2961297,-0.4083532,0.28274375,-0.7890838,0.079500854,-0.97859335,0.4922418,-0.19413818,-0.041702703,0.8398977,-0.93747354,0.4499946,-1.3955778,0.59809846,-0.21642295,-2.0382264,-0.16637912,-0.9070109
-0.63563156,0.45948008,0.2672727,0.18093406,-0.8405956,1.0709856,0.09307428,-1.3092093,-0.5017529,0.87115693,0.16861713,2.3593178,0.7423587,0.762462,0.20127738,-1.0698935,-0.124293335,0.8458288,1.659466,0.6104464,0.9252306,0.50247073,-0.12469985,0.6894972,0.91005886,-1.1117021,1.4458529,-1.9129549,1.1294605,-2.4538934,0.15425284,0.2791176
1.0009136,-1.0345366,0.45836946,-1.886014,-0.2884615,1.1535116,-1.3651433,-1.4369395,-0.4929938,-0.22188772,0.18674985,1.0000868,-1.4112462,-0.56789005,-1.6630327,-0.1869896,-0.04564944,-0.95295453,-0.29915398,0.5775037,-0.5886941,0.4432215,0.29120898,-0.01218028,-0.093317054,-1.5974971,-0.181482,1.2703317,-0.5050921,1.2435985,0.8867566,1.1772023
0.40701908,0.5095302,-1.4438171,-0.07420413,1.4886066,-0.62628967,0.41159022,2.1380568,0.023539385,-0.1858586,-0.2164225,1.2126904,-0.2691113,-0.4453429,0.38173056,-0.5759729,0.31243455,-0.37487978,-1.0528423,-0.48889965,-1.7737887,2.1224806,-1.4833767,-0.11685595,-1.3612435,0.9997625,1.4444845,0.57954276,-0.5895706,1.0386,-0.99539644,1.2629464
-0.3274158,1.1460168,0.24082467,-2.3196123,-0.4893566,-0.116791524,0.95921123,-1.7965732,0.8448049,0.05911588,-0.46025512,0.08850298,-0.53705215,-0.8905803,-0.93440294,1.1821162,0.6433265,0.89894104,1.7440362,-2.4964714,0.27846345,-0.38520324,-1.3674423,1.2655259,1.2084992,-0.13197552,0.35278943,-0.78731245,-0.44805402,1.1739745,0.71335787,0.548529
0.45011842,2.1162934,-0.7878989,0.082585424,0.15024929,-0.6119397,-1.152945,2.1389682,-2.590616,-0.13963641,-0.31076607,-0.71448386,0.14422959,0.06588725,1.376944,0.10059149,0.18731093,-1.5734344,-0.3107971,-1.8069074,0.5879377,0.4540699,0.45936373,-1.1755363,0.18470043,-0.2694551,-0.05640786,1.4319156,-1.6553354,1.3860958,1.3135138,-0.28093326
-0.85874057,0.83888984,0.8017736,0.38792497,0.07735809,0.45856565,0.242069,0.22594997,-1.330314,-0.9320273,1.157973,-0.41831523,-0.448435,2.802593,0.5967867,-0.7023016,-0.30813166,-1.0099262,1.436781,1.9097645,0.2890101,-0.1580531,-0.6947042,1.3096143,-0.1506656,0.4437863,-0.77359957,-0.73570293,-1.3866568,0.5677966,0.38665944,-0.25306243
0.17516834,-0.09159797,0.69554836,-0.08434486,-1.6030043,-2.1782794,0.5922098,0.26274794,-1.0207889,-0.5007421,-0.3036085,-0.5517883,-1.5644165,-0.6278537,-0.80941945,-0.2507541,-0.110761106,-0.2042096,0.07331677,-1.5961072,-0.35514265,-1.1802385,-0.19515929,-0.37647536,-0.29767278,-0.41205627,-1.6333141,0.9440839,1.1035457,-0.00073685683,1.4756993,-0.7886055
1.0876086,0.73431647,0.6440816,-0.16295007,-0.41837624,-2.150726,0.4110179,0.45884866,-0.106522664,-1.8139408,1.3412007,-0.4099231,0.44007516,-1.1768937,-1.1454878,0.6034124,0.6202065,0.6456229,-0.70492417,0.47052678,-0.23370376,0.23173812,-0.3254407,0.6680924,1.2224287,-0.18413939,1.1584529,-0.26976398,0.5104332,0.11471089,0.3183602,-0.15008245
-1.6162667,-0.25213766,-0.39132002,0.047376387,-0.045250002,-0.59620434,1.2970314,-1.1951047,-0.08091807,1.022975,-2.0136251,0.31673717,2.1208026,0.34548756,0.085147165,0.7247571,-1.5202004,-0.9663163,0.5908761,1.218343,1.7587793,-1.3505983,0.42939845,-1.4549469,-1.122139,-1.194087,0.056033675,-0.798804,0.018425977,-2.5092285,-0.59454453,0.47313666
1.3137896,1.2564898,-2.2472813,-0.13741332,-1.7541986,0.6384323,-0.56402403,0.40927386,-0.8800285,0.88515705,2.422016,-0.509509,1.6176316,0.59317666,-1.8859537,-0.14478686,-0.36467358,0.26194942,0.54049087,1.3836067,0.46253288,1.4546654,0.65130675,0.09249689,-0.018247548,-0.41457775,0.40685797,-1.1835425,-0.5195349,-1.0380434,-0.5847045,0.7976215
-0.32225308,-0.10560924,0.31204376,-0.36568826,-0.91336626,-0.95167357,-1.7135249,-0.40731886,0.51269054,0.4582603,1.3083453,0.75846326,-0.48055458,-0.8644422,1.4106698,0.28532404,-1.3232871,-0.5263937,0.14664146,2.2844422,-0.5035719,0.68130875,-0.5073192,-0.30731118,0.123635046,0.066534355,0.7514553,0.6091207,-0.09125668,1.7288373,-0.59227866,-1.4607482
0.15047055,-0.5456561,0.4627616,-0.2218785,0.46145284,1.5723389,-0.2408912,-1.0592452,-0.7251935,-0.05516001,-0.5264722,0.3542434,-0.057835538,-1.2025663,-0.8563213,-1.5842488,1.2338405,0.43433005,-0.6251657,-0.821348,0.6194602,-1.51707,-1.0536119,0.59489846,-0.86321455,-1.7030338,-0.15896004,-0.12486614,-1.0922773,-0.581773,0.32598037,-0.26220918
-2.013867,0.2947202,-0.8219351,-1.1839838,0.9995562,-1.8019096,0.86362386,0.65167314,-0.22368732,0.34767357,-0.7281938,-1.4895319,-1.9684739,-0.9647841,-0.06424187,1.5738003,0.50954616,-1.2036575,-0.6173202,-1.0535263,-0.21765587,0.14151618,-1.2183918,-2.0577083,-1.7558231,0.6529851,0.61422867,-1.2243495,-1.1684178,-1.1706009,-0.48193824,-0.7271144
-0.7501034,1.3730268,0.7620504,-0.5191315,0.03774196,-1.1497189,0.69082785,-0.38469347,-1.5964966,-0.20582914,0.9350217,1.1403129,0.28690314,1.7548504,-0.0966357,-0.22986346,1.0738518,-1.416553,0.5164085,0.40271068,-0.7872151,-0.033816032,0.36331642,0.70755315,-0.8520054,-0.5244719,0.45256537,0.45295143,0.33184838,1.0833308,1.251694,-1.1014942
-1.2222192,0.6305697,0.438703,0.6526592,0.37368965,-0.52711356,-1.2740767,0.35820615,0.33303985,0.31319717,1.2775229,1.7252426,-0.59392667,0.55141574,0.22431032,0.072663955,0.11074474,0.032019034,-0.8000926,-0.034116074,-1.5858694,-1.4440693,0.03967035,-0.061844744,-2.4660497,-0.42181948,-0.5307288,0.80848956,1.4010571,1.0164304,0.8223199,0.65801513
