0,1,2,3,4,5,6,7,8,9,10,11,12,13,14,15,16,17,18,19,20,21,22,23,24,25,26,27,28,29,30,31
-0.84167314,0.43961358,-0.47859478,0.26271087,-0.3351172,1.2599885,0.52355516,0.21717949,0.3292096,-0.6269606,-1.0695039,-0.102364175,0.37334275,0.9439915,-0.46750072,-0.4903267,-0.27047315,-0.25954664,-0.64611167,-2.4369113,-0.34132048,-1.1393116,0.45081103,-1.654933,-0.34560654,-0.5721959,-0.1725923,1.4518665,0.88815016,0.78133804,1.0700598,2.182573
1.0371436,-1.3673028,0.9753766,-0.22626477,0.039648045,-1.1332129,0.6585832,1.0511909,-0.1258334,0.17303406,-0.4730969,-0.5786264,-0.10709073,-0.74009997,0.5048204,-0.5956973,-1.3187572,0.8790728,-0.2848788,0.0011573359,-0.08441622,-0.73625475,-1.5864031,0.020156328,-0.12669879,1.6337545,0.8346429,-1.1407115,-1.7957371,1.9751515,-1.4073976,-0.85350144
0.12260878,-1.2609801,0.55960816,0.27334234,-1.3431588,0.22815228,-0.2064499,-1.6987246,-0.25594965,0.109770074,-1.6649545,0.9861177,-0.06005665,0.18765524,-0.40525442,-0.88654006,1.1332468,-0.6824265,2.7936227,-0.5522733,2.1680436,0.3754845,-1.7209204,0.6029537,1.5181856,-0.02662752,-0.23059434,0.65671694,1.0607102,0.22690327,0.29722205,0.23730461
0.30328667,-1.773845,-1.5951145,-0.42865697,-0.35393488,-1.1710093,-0.8090014,-0.07434461,-0.029695444,0.6251218,-1.4907532,-1.0268582,0.41899735,-1.5029881,-0.5322702,-0.031321693,0.40746295,0.5683474,1.1506414,1.4595168,0.16996282,-0.8493307,1.6332301,2.263906,0.09733519,1.2096782,0.16988783,1.5525829,-0.66634524,-1.635788,0.9254303,-0.6475614
1.3195579,-0.20708379,-0.17105508,-1.1523675,0.8051533,1.8684272,0.6154144,0.08207053,1.2846023,1.4969466,-0.9915726,1.3568342,-1.6541697,-0.51770276,-0.88547534,-0.23764168,-0.6495581,2.2763216,-0.11246699,-0.8938395,-0.52954036,-1.0676824,-0.86977696,0.37425143,-0.20599689,-1.3364106,1.6936797,1.6537217,-0.05923673,-0.5447254,0.22859493,-0.3447083
0.032777667,0.77565503,0.49147484,-0.27388602,1.7288325,1.2341722,1.3328466,-0.10146632,0.10428131,-0.230329,0.7151235,-1.4871886,0.8796345,0.087763086,-0.2558308,-2.2339835,1.8890885,0.85867655,0.73233247,-0.7893479,-1.2446426,-1.6784351,2.2495291,0.73883325,-0.17115618,0.51938033,0.01192297,0.3229003,0.3540773,0.32173073,0.18585305,-0.95351493
0.69748867,0.40776744,0.7709964,1.0498459,0.6757258,0.74620473,0.13449134,1.665707,2.2771714,0.40765935,-1.3096926,-0.61285317,0.06713412,0.39512378,2.4965014,-0.45800063,0.37189505,-1.6881043,-0.5344559,-1.0380262,0.02687022,-0.10585416,0.70895356,0.70699555,1.6414852,0.11280333,1.6998842,2.2320838,-1.3129542,-1.4283144,-2.2109084,-1.0318213
-2.2332265,0.28088775,-0.310216,-0.63590676,0.56237304,0.14873067,1.2586207,0.5191267,-0.39282906,1.5416076,-0.06976997,-0.26026672,-0.025134206,-0.6174796,0.8967012,1.0514226,-0.17094709,-0.817835,-0.25619802,-1.4801481,-0.049494587,0.1650396,-1.1432956,-0.8213721,-1.4001693,0.012187146,-0.49513695,-0.8532073,1.3823626,-0.9364409,-1.922048,-0.034319498
0.406687,-0.22079445,0.7700741,2.728508,0.06284006,0.6058408,0.62748003,-1.0750811,0.06659505,0.34872314,1.2896988,-0.22638279,0.38063353,0.05586058,-1.4361706,-1.1224797,0.68412423,0.6079104,-0.33403414,1.7185341,-0.6366204,-2.0426314,0.9802071,-0.59961635,1.3329543,0.87746793,-0.06657848,0.7511375,0.416421,0.8763687,1.4333897,-0.5544421
1.1588026,0.08860174,-1.1869717,-0.25421813,0.069433466,-0.44742158,0.8689182,0.9207662,1.4722252,-0.7918688,0.29512754,0.21890602,0.10443865,-1.2118648,-0.014092633,-0.7591652,0.34160233,-0.5863943,-0.8171686,-0.11050187,-0.5105259,1.3258566,-0.16022238,-0.9451038,1.2391534,0.29626724,0.9210145,0.46366167,-1.6828809,-0.61574125,-1.4338539,0.33773446
-0.20150128,-0.24427736,-0.06469214,1.5717365,-0.4829823,1.0819871,1.2199101,-1.7250344,-1.7335634,2.0320117,-0.6325076,-0.6863653,-1.4025966,-0.8078039,0.4444394,-0.9823829,0.5599602,-1.7213335,-0.0018249173,-1.0367433,-0.3610957,-0.6175028,1.2124127,-1.0328709,0.31728393,-0.6050254,-0.31941062,0.17690665,-0.92443186,1.3317986,0.39358094,0.054181866
-1.7466028,-1.3228621,0.34009555,-0.5093558,0.88005114,0.41975862,1.0436827,0.61403155,1.3691658,0.6894348,-1.6146746,-0.3039765,-0.4272114,0.9056882,-2.2485116,0.7339466,0.37497225,-0.14932597,0.7052842,0.999977,1.2907342,0.12855661,0.8952489,0.48483676,1.3038452,-1.9838084,-2.6829882,-0.7967998,0.5296107,-1.8210671,-1.2894629,-0.26579678
-0.17597674,-1.1068368,1.3899552,0.8558376,0.6360669,-1.1878804,-1.5673338,1.2368171,0.681183,-0.6012687,2.2875173,-0.5678023,-0.3120121,0.050490152,0.82517153,-0.20116623,0.51738644,-0.7771419,0.8067972,0.7355229,0.4594025,0.9163842,0.28010383,-0.25344196,-1.3595704,-2.697472,-0.2911329,-1.3470871,0.56626797,0.12707043,-0.48072928,-0.40013728
0.25765753,-0.29518384,-2.429382,-0.4784523,-0.47246805,0.28659156,0.70307595,-1.1520551,-0.13388878,-1.2498842,0.80636543,0.2173737,-0.2873836,-0.42725486,-0.84369606,1.2769885,-0.1607271,0.28801018,-1.8234423,-0.9410044,1.2603813,-1.2410439,0.9562515,1.0122226,0.04552009,0.1075838,0.5531259,-0.075700894,-0.8301597,1.046901,-0.10649611,1.7676314
0.6342232,-0.33366072,0.20357028,1.1827898,1.5820642,-0.16491538,1.0334561,-0.39339027,-1.9289594,-1.9136782,0.4011159,-0.22352259,0.52141315,0.15668689,0.6865328,0.49198228,-0.7023625,0.7633667,-2.6024778,1.6645414,0.8322324,0.25891143,0.17131051,0.94070005,0.7755798,2.5483174,0.6271324,0.27154246,-1.2100121,-0.68887526,-0.6342252,-0.23673506
-0.27100015,-0.81487674,0.095200986,-0.3487108,1.4925907,-1.2782497,-0.589276,-0.6708904,0.7674047,-1.1422447,-0.62354064,0.7740564,0.46301973,0.66850144,-0.46776512,-1.7667575,0.8030004,-0.40773183,-0.36600125,-0.4948657,-0.8787272,-1.2349976,-0.063863896,0.548832,0.94446754,-1.2729037,0.39969206,0.102114625,-0.98734283,-0.75484353,-0.32686248,-0.026858266
1.2803644,0.2626389,-0.6856686,-0.81102276,-2.0796106,1.6379049,2.8354135,-0.93470293,2.714719,-1.0501165,0.5437355,0.22791281,-0.5642876,1.5725541,1.2961297,-0.4083532,0.28274375,-0.7890838,0.10890088,-1.1076941,0.47935185,-0.19413818,0.0030003532,0.8398977,-0.93747354,0.4499946,-1.3985995,0.6633972,-0.21642295,-2.0382264,-0.16637912,-0.8370651
-0.63563156,0.45948008,0.3297321,0.14969954,-0.8554627,1.0709856,0.07748559,-1.3092093,-0.6168592,0.87115693,0.2086822,2.3373787,0.7423587,0.762462,0.21605289,-1.0698935,-0.124293335,0.88418114,1.659466,0.6104464,0.9252306,0.50247073,-0.16156517,0.6894972,0.91005886,-1.1413349,1.4168206,-1.9318691,1.1294605,-2.5881305,0.15425284,0.2791176
0.9863926,-1.1516833,0.42464206,-1.886014,-0.24683791,1.1702336,-1.3651433,-1.4599104,-0.54054,-0.1968527,0.27215964,1.052425,-1.5939789,-0.71149343,-1.6630327,-0.1869896,-0.1113427,-0.93475527,-0.29915398,0.5775037,-0.5886941,0.5914253,0.29120898,-0.01218028,-0.093317054,-1.5974971,-0.181482,1.1930989,-0.5050921,1.2435985,0.9436918,1.1772023
0.46066454,0.52953035,-1.4438171,-0.07420413,1.4886066,-0.62628967,0.41159022,2.081519,0.028316332,-0.20816731,-0.2164225,1.2341824,-0.2691113,-0.4453429,0.37754652,-0.50662,0.31243455,-0.3497876,-1.0528423,-0.48889965,-1.7737887,2.1224806,-1.4833767,-0.18469545,-1.3612435,0.9997625,1.4444845,0.6321337,-0.5895706,1.0472635,-0.99539644,1.2629464
-0.38836518,1.08799,0.24082467,-2.3736143,-0.4893566,-0.116791524,0.95921123,-1.8441012,0.797506,0.05911588,-0.53950226,0.08850298,-0.53705215,-0.9680079,-0.9672667,1.1472846,0.7301996,0.9615907,1.7440362,-2.4964714,0.27846345,-0.38520324,-1.3674423,1.2893482,1.1804018,-0.13197552,0.35278943,-0.82020456,-0.44805402,1.0466566,0.71335787,0.548529
0.45011842,2.045562,-0.7878989,0.082585424,0.15024929,-0.592299,-1.152945,2.1389682,-2.590616,-0.13963641,-0.37677455,-0.7025932,0.029650755,0.06588725,1.219965,0.10059149,0.18731093,-1.5367988,-0.27241638,-1.8050206,0.49688178,0.4243847,0.4632482,-1.1755363,0.18470043,-0.2694551,-0.05640786,1.5011729,-1.6606008,1.3860958,1.2972338,-0.28093326
-0.81761414,0.83888984,0.8017736,0.38792497,0.11565253,0.32819086,0.242069,0.22594997,-1.1486341,-0.9320273,1.157973,-0.41831523,-0.448435,2.802593,0.5261051,-0.71418136,-0.31125617,-0.9487599,1.436781,1.9097645,0.2890101,-0.13265948,-0.7743662,1.2870433,-0.17807059,0.4437863,-0.70046383,-0.73570293,-1.3866568,0.5677966,0.38665944,-0.25306243
0.14033012,-0.15910578,0.69554836,-0.08434486,-1.6030043,-2.1983232,0.547244,0.22390659,-1.0207889,-0.56518203,-0.38976657,-0.5517883,-1.5644165,-0.6278537,-0.80941945,-0.1643098,-0.026250005,-0.2070133,0.058908142,-1.5961072,-0.35514265,-1.1802385,-0.19214077,-0.3524626,-0.35024703,-0.40412864,-1.5694312,0.9440839,1.1035457,-0.00073685683,1.4756993,-0.8314828
1.0876086,0.73431647,0.5284878,-0.16295007,-0.41837624,-2.150726,0.4110179,0.45821103,-0.106522664,-1.7763112,1.3412007,-0.38179675,0.4241282,-1.1657898,-1.0869737,0.6034124,0.6246194,0.59579563,-0.70492417,0.4127573,-0.23370376,0.23173812,-0.33989257,0.6680924,1.2224287,-0.1482837,1.1584529,-0.26976398,0.5601698,0.11471089,0.3431934,-0.13723221
-1.6162667,-0.25213766,-0.39328554,0.06392974,-0.049605,-0.59620434,1.2970314,-1.1951047,-0.10431043,1.022975,-2.0136251,0.31673717,2.1208026,0.34548756,0.085147165,0.7247571,-1.4988949,-0.9663163,0.6000238,1.218343,1.7587793,-1.3505983,0.42939845,-1.4549469,-1.0579803,-1.142821,0.056033675,-0.75353885,0.018425977,-2.5092285,-0.502826,0.47313666
1.3137896,1.2564898,-2.2472813,-0.11491027,-1.7470956,0.6384323,-0.56402403,0.37734932,-0.8800285,0.88515705,2.422016,-0.4691478,1.6176316,0.5887383,-1.8859537,-0.14478686,-0.36467358,0.26194942,0.54049087,1.3836067,0.46253288,1.4546654,0.65130675,0.09249689,-0.0057381857,-0.41457775,0.34514165,-1.1835425,-0.4369731,-1.0380434,-0.5080209,0.8865645
-0.32225308,-0.10560924,0.31204376,-0.36568826,-0.9424982,-0.95167357,-1.7135249,-0.38714334,0.44728875,0.4708929,1.3325051,0.79822993,-0.48055458,-0.8644422,1.4106698,0.43417817,-1.3232871,-0.5263937,0.14664146,2.2844422,-0.5035719,0.729215,-0.3590966,-0.30731118,0.16727142,0.08910043,0.76851,0.6091207,-0.09125668,1.7665409,-0.59227866,-1.3169743
0.15047055,-0.5456561,0.45377663,-0.27541772,0.46145284,1.5723389,-0.2408912,-1.0592452,-0.7251935,-0.05516001,-0.5264722,0.3542434,-0.057835538,-1.2573228,-0.8652289,-1.5679626,1.2608027,0.43433005,-0.65039605,-0.821348,0.6873402,-1.517315,-1.0536119,0.59489846,-0.81798655,-1.7101625,-0.15896004,-0.12486614,-1.1464571,-0.58713347,0.215392,-0.26220918
-2.013867,0.21840797,-0.8219351,-1.1839838,0.87283957,-1.834907,0.86362386,0.5984336,-0.23883352,0.34767357,-0.7281938,-1.4895319,-2.0063646,-0.86210895,-0.06424187,1.4895629,0.50954616,-1.2036575,-0.6173202,-1.0535263,-0.24135429,0.14151618,-1.2183918,-2.0577083,-1.7558231,0.6529851,0.61422867,-1.2243495,-1.1684178,-1.1706009,-0.48193824,-0.7271144
-0.7501034,1.2432721,0.698409,-0.5191315,0.03774196,-1.161276,0.73388016,-0.38469347,-1.5964966,-0.19904877,0.9350217,1.1403129,0.28690314,1.7548504,-0.105061434,-0.22986346,1.0738518,-1.416553,0.5238522,0.40271068,-0.7872151,-0.033816032,0.36331642,0.73883355,-0.8520054,-0.5244719,0.4787111,0.47814658,0.3299516,1.0833308,1.251694,-1.0903283
-1.3464816,0.62794393,0.438703,0.49084604,0.41052034,-0.609596,-1.20134,0.35820615,0.29470342,0.19885384,1.2290841,1.7252426,-0.59392667,0.51189965,0.12412058,0.072663955,0.11074474,0.026509352,-0.8000926,-0.034116074,-1.576454,-1.4440693,0.09385413,-0.05210394,-2.452911,-0.42181948,-0.5307288,0.7872763,1.4010571,1.0164304,0.8258667,0.65801513
